network "Bayesian Net" {
// written by aGrUM 0.16.4
}

variable a {
   type discrete[2] {0, 1};
}

variable b {
   type discrete[2] {0, 1};
}

variable r {
   type discrete[300] {0, 1, 2, 3, 4, 5, 6, 7, 8, 9, 10, 11, 12, 13, 14, 15, 16, 17, 18, 19, 20, 21, 22, 23, 24, 25, 26, 27, 28, 29, 30, 31, 32, 33, 34, 35, 36, 37, 38, 39, 40, 41, 42, 43, 44, 45, 46, 47, 48, 49, 50, 51, 52, 53, 54, 55, 56, 57, 58, 59, 60, 61, 62, 63, 64, 65, 66, 67, 68, 69, 70, 71, 72, 73, 74, 75, 76, 77, 78, 79, 80, 81, 82, 83, 84, 85, 86, 87, 88, 89, 90, 91, 92, 93, 94, 95, 96, 97, 98, 99, 100, 101, 102, 103, 104, 105, 106, 107, 108, 109, 110, 111, 112, 113, 114, 115, 116, 117, 118, 119, 120, 121, 122, 123, 124, 125, 126, 127, 128, 129, 130, 131, 132, 133, 134, 135, 136, 137, 138, 139, 140, 141, 142, 143, 144, 145, 146, 147, 148, 149, 150, 151, 152, 153, 154, 155, 156, 157, 158, 159, 160, 161, 162, 163, 164, 165, 166, 167, 168, 169, 170, 171, 172, 173, 174, 175, 176, 177, 178, 179, 180, 181, 182, 183, 184, 185, 186, 187, 188, 189, 190, 191, 192, 193, 194, 195, 196, 197, 198, 199, 200, 201, 202, 203, 204, 205, 206, 207, 208, 209, 210, 211, 212, 213, 214, 215, 216, 217, 218, 219, 220, 221, 222, 223, 224, 225, 226, 227, 228, 229, 230, 231, 232, 233, 234, 235, 236, 237, 238, 239, 240, 241, 242, 243, 244, 245, 246, 247, 248, 249, 250, 251, 252, 253, 254, 255, 256, 257, 258, 259, 260, 261, 262, 263, 264, 265, 266, 267, 268, 269, 270, 271, 272, 273, 274, 275, 276, 277, 278, 279, 280, 281, 282, 283, 284, 285, 286, 287, 288, 289, 290, 291, 292, 293, 294, 295, 296, 297, 298, 299};
}

probability (a) {
   default 0.5 0.5;
}
probability (b) {
   default 0.5 0.5;
}
probability (r | a, b) {
   (0, 0) 2.65372e-06 2.8369e-06 3.03188e-06 3.23935e-06 3.46005e-06 3.69475e-06 3.94428e-06 4.20947e-06 4.49124e-06 4.79054e-06 5.10835e-06 5.44572e-06 5.80374e-06 6.18358e-06 6.58643e-06 7.01357e-06 7.46632e-06 7.94607e-06 8.45428e-06 8.99249e-06 9.56228e-06 1.01653e-05 1.08034e-05 1.14783e-05 1.2192e-05 1.29464e-05 1.37436e-05 1.45859e-05 1.54754e-05 1.64146e-05 1.7406e-05 1.8452e-05 1.95555e-05 2.07191e-05 2.19458e-05 2.32387e-05 2.46009e-05 2.60356e-05 2.75463e-05 2.91365e-05 3.08099e-05 3.25703e-05 3.44216e-05 3.6368e-05 3.84137e-05 4.05632e-05 4.28209e-05 4.51917e-05 4.76804e-05 5.0292e-05 5.30319e-05 5.59055e-05 5.89182e-05 6.2076e-05 6.53847e-05 6.88505e-05 7.24797e-05 7.62789e-05 8.02549e-05 8.44144e-05 8.87647e-05 9.33131e-05 9.80671e-05 0.000103035 0.000108223 0.000113642 0.000119298 0.000125201 0.000131359 0.000137781 0.000144477 0.000151456 0.000158728 0.000166302 0.000174189 0.000182399 0.000190943 0.000199831 0.000209075 0.000218684 0.000228672 0.000239048 0.000249826 0.000261017 0.000272632 0.000284685 0.000297188 0.000310153 0.000323593 0.000337521 0.00035195 0.000366894 0.000382365 0.000398377 0.000414943 0.000432078 0.000449794 0.000468106 0.000487027 0.000506571 0.000526752 0.000547584 0.000569081 0.000591256 0.000614123 0.000637697 0.00066199 0.000687017 0.00071279 0.000739324 0.000766631 0.000794724 0.000823616 0.00085332 0.000883848 0.000915213 0.000947425 0.000980497 0.00101444 0.00104926 0.00108498 0.0011216 0.00115913 0.00119758 0.00123696 0.00127728 0.00131854 0.00136076 0.00140393 0.00144807 0.00149318 0.00153927 0.00158633 0.00163438 0.0016834 0.00173342 0.00178442 0.00183641 0.00188939 0.00194335 0.00199829 0.00205421 0.00211111 0.00216898 0.0022278 0.00228759 0.00234832 0.00240999 0.00247259 0.0025361 0.00260052 0.00266583 0.00273202 0.00279907 0.00286696 0.00293567 0.00300519 0.0030755 0.00314658 0.00321839 0.00329093 0.00336415 0.00343805 0.00351259 0.00358774 0.00366347 0.00373975 0.00381656 0.00389385 0.0039716 0.00404977 0.00412833 0.00420723 0.00428644 0.00436592 0.00444563 0.00452552 0.00460557 0.00468572 0.00476594 0.00484617 0.00492638 0.00500651 0.00508652 0.00516637 0.005246 0.00532538 0.00540444 0.00548314 0.00556143 0.00563926 0.00571659 0.00579335 0.0058695 0.00594499 0.00601977 0.00609378 0.00616698 0.00623932 0.00631073 0.00638118 0.00645062 0.00651898 0.00658623 0.00665231 0.00671717 0.00678077 0.00684306 0.00690399 0.00696352 0.00702159 0.00707817 0.00713321 0.00718667 0.00723851 0.00728868 0.00733714 0.00738387 0.00742881 0.00747194 0.00751321 0.0075526 0.00759008 0.00762561 0.00765916 0.00769071 0.00772023 0.00774769 0.00777308 0.00779638 0.00781755 0.0078366 0.00785349 0.00786822 0.00788077 0.00789113 0.0078993 0.00790527 0.00790903 0.00791057 0.00790991 0.00790704 0.00790195 0.00789466 0.00788518 0.0078735 0.00785964 0.00784361 0.00782543 0.0078051 0.00778265 0.0077581 0.00773146 0.00770276 0.00767202 0.00763927 0.00760452 0.00756782 0.0075292 0.00748867 0.00744628 0.00740206 0.00735604 0.00730827 0.00725878 0.0072076 0.00715479 0.00710038 0.00704441 0.00698693 0.00692798 0.0068676 0.00680585 0.00674277 0.0066784 0.0066128 0.00654602 0.00647809 0.00640908 0.00633903 0.006268 0.00619602 0.00612316 0.00604947 0.00597499 0.00589978 0.00582389 0.00574736 0.00567026 0.00559262 0.00551451 0.00543596 0.00535704 0.00527779 0.00519825 0.00511849 0.00503853 0.00495844 0.00487826 0.00479803;
   (1, 0) 0 0 0 0 0 0 0 0 0 0 0 0 0 0 0 0 0 0 0 0 0 0 0 0 0 0 0 0 0 0 0 0 0 0 0 0 0 0 0 0 0 0 0 0 0 0 0 0 0 0 0 0 0 0 0 0 0 0 0 0 0 0 0 0 0 0 0 0 0 0 0 0 0 0 0 0 0 0 0 0 0 0 0 0 0 0 0 0 0 0 0 0 0 0 0 0 0 0 0 0 0 0 0 0 0 0 0 0 0 0 0 0 0 0 0 0 0 0 0 0 0 0 0 0 0 0 0 0 0 0 0 0 0 0 0 0 0 0 0 0 0 0 0 0 0 0 0 0 0 0 0 0 0 0 0 0 0 0 0 0 0 0 0 0 0 0 0 0 0 0 0 0 0 0 0 0 0 0 0 0 0 0 0 0 0 0 0 0 0 0 0 0 0 0 0 0 0 0 0 0 0 0 0 0 0 0 0 0 0 0 0 0 0 0 0 0 0 0 0 0 0 0 0 0 0 0 0 0 0 0 0 0 0 0 0 0 0 0 0 0 1.17733e-05 5.95806e-05 0.000144078 0.000265123 0.000422513 0.000615984 0.000845213 0.00110982 0.00140935 0.00174332 0.00211116 0.00251226 0.00294596 0.00341154 0.00390822 0.00443518 0.00499156 0.00557644 0.00618885 0.0068278 0.00749224 0.00818109 0.00889324 0.00962752 0.0103828 0.0111577 0.0119512 0.0127619 0.0135886 0.0144299 0.0152846 0.0161512 0.0170285 0.017915 0.0188095 0.0197105 0.0206167 0.0215267 0.0224391 0.0233526 0.0242658 0.0251774 0.0260861 0.0269905 0.0278894 0.0287814 0.0296654 0.0305401 0.0314042 0.0322567 0.0330963 0.033922 0.0347327 0.0355273 0.0363048 0.0370643 0.0378048 0.0385254 0.0392252 0.0399035;
   (0, 1) 0.0207714 0.0205778 0.020379 0.0201754 0.019967 0.0197541 0.0195369 0.0193155 0.0190901 0.018861 0.0186284 0.0183924 0.0181532 0.0179111 0.0176662 0.0174188 0.0171691 0.0169172 0.0166633 0.0164077 0.0161506 0.0158921 0.0156325 0.0153719 0.0151105 0.0148486 0.0145863 0.0143237 0.0140611 0.0137987 0.0135366 0.0132749 0.0130139 0.0127538 0.0124946 0.0122365 0.0119797 0.0117243 0.0114705 0.0112184 0.0109681 0.0107198 0.0104736 0.0102295 0.00998775 0.00974841 0.0095116 0.00927739 0.0090459 0.00881719 0.00859136 0.00836848 0.00814862 0.00793186 0.00771825 0.00750786 0.00730072 0.0070969 0.00689644 0.00669937 0.00650573 0.00631555 0.00612886 0.00594567 0.00576601 0.00558989 0.00541731 0.00524828 0.00508281 0.00492088 0.00476251 0.00460767 0.00445636 0.00430856 0.00416425 0.00402342 0.00388603 0.00375206 0.00362149 0.00349428 0.00337039 0.0032498 0.00313246 0.00301834 0.00290739 0.00279958 0.00269484 0.00259315 0.00249446 0.0023987 0.00230584 0.00221583 0.00212861 0.00204413 0.00196235 0.00188319 0.00180662 0.00173257 0.001661 0.00159184 0.00152505 0.00146057 0.00139834 0.00133831 0.00128042 0.00122462 0.00117086 0.00111908 0.00106922 0.00102125 0.00097509 0.000930706 0.000888042 0.000847046 0.00080767 0.000769864 0.000733579 0.000698768 0.000665384 0.00063338 0.000602712 0.000573334 0.000545204 0.000518279 0.000492517 0.000467877 0.000444319 0.000421805 0.000400296 0.000379755 0.000360147 0.000341435 0.000323586 0.000306567 0.000290344 0.000274887 0.000260164 0.000246147 0.000232807 0.000220114 0.000208044 0.000196569 0.000185663 0.000175304 0.000165467 0.000156128 0.000147267 0.000138862 0.000130892 0.000123338 0.000116181 0.000109402 0.000102983 9.69088e-05 9.11617e-05 8.57263e-05 8.05878e-05 7.57317e-05 7.1144e-05 6.68117e-05 6.2722e-05 5.88627e-05 5.52222e-05 5.17893e-05 4.85534e-05 4.55043e-05 4.26322e-05 3.99279e-05 3.73825e-05 3.49875e-05 3.27348e-05 3.06169e-05 2.86263e-05 2.6756e-05 2.49995e-05 2.33504e-05 2.18027e-05 2.03507e-05 1.8989e-05 1.77124e-05 1.6516e-05 1.53953e-05 1.43457e-05 1.33631e-05 1.24437e-05 1.15836e-05 1.07793e-05 1.00274e-05 9.32485e-06 8.66857e-06 8.05575e-06 7.48373e-06 6.94997e-06 6.4521e-06 5.98786e-06 5.55515e-06 5.15196e-06 4.77643e-06 4.42676e-06 4.10131e-06 3.7985e-06 3.51685e-06 3.25499e-06 3.0116e-06 2.78548e-06 2.57545e-06 2.38046e-06 2.19949e-06 2.03159e-06 1.87587e-06 1.7315e-06 1.5977e-06 1.47374e-06 1.35894e-06 1.25266e-06 1.1543e-06 1.0633e-06 9.79143e-07 9.01344e-07 8.29445e-07 7.63024e-07 7.01684e-07 6.45056e-07 5.92799e-07 5.4459e-07 5.00133e-07 4.59149e-07 4.21382e-07 3.8659e-07 3.5455e-07 3.25056e-07 2.97915e-07 2.72948e-07 2.49988e-07 2.28882e-07 2.09488e-07 1.91672e-07 1.75311e-07 1.60293e-07 1.46512e-07 1.3387e-07 1.22278e-07 1.11652e-07 1.01915e-07 9.29952e-08 8.48275e-08 7.73511e-08 7.05098e-08 6.42517e-08 5.85293e-08 5.32986e-08 4.85188e-08 4.41528e-08 4.01661e-08 3.65269e-08 3.32063e-08 3.01773e-08 2.74153e-08 2.48977e-08 2.26037e-08 2.05141e-08 1.86113e-08 1.68793e-08 1.53034e-08 1.38698e-08 1.25663e-08 1.13815e-08 1.03049e-08 9.32696e-09 8.43898e-09 7.63295e-09 6.90158e-09 6.23817e-09 5.63663e-09 5.09137e-09 4.5973e-09 4.14977e-09 3.74453e-09 3.37773e-09 3.04583e-09 2.74561e-09 2.47414e-09 2.22877e-09 2.00704e-09 1.80677e-09 1.62593e-09 1.46269e-09 1.3154e-09 1.18254e-09 1.06274e-09 9.54751e-10 8.57446e-10 7.69798e-10 6.90875e-10 6.19835e-10 5.55911e-10 4.9841e-10 4.46707e-10 4.00231e-10 3.58469e-10;
   (1, 1) 0.00333565 0.00355217 0.00377195 0.00399457 0.00421962 0.00444669 0.00467534 0.00490516 0.00513574 0.00536666 0.0055975 0.00582786 0.00605732 0.00628549 0.00651198 0.00673639 0.00695836 0.0071775 0.00739345 0.00760587 0.00781442 0.00801875 0.00821856 0.00841354 0.00860339 0.00878784 0.00896661 0.00913946 0.00930615 0.00946645 0.00962016 0.00976708 0.00990703 0.0100399 0.0101654 0.0102835 0.0103941 0.0104971 0.0105924 0.0106799 0.0107596 0.0108313 0.0108952 0.0109512 0.0109993 0.0110395 0.0110718 0.0110963 0.0111131 0.0111222 0.0111237 0.0111177 0.0111044 0.0110837 0.0110559 0.0110211 0.0109795 0.0109311 0.0108762 0.0108149 0.0107475 0.010674 0.0105947 0.0105099 0.0104196 0.0103241 0.0102236 0.0101183 0.0100085 0.00989435 0.00977606 0.00965388 0.00952802 0.00939871 0.00926617 0.00913062 0.00899229 0.0088514 0.00870816 0.0085628 0.00841552 0.00826653 0.00811605 0.00796428 0.00781141 0.00765765 0.00750318 0.00734819 0.00719286 0.00703738 0.00688191 0.00672661 0.00657166 0.0064172 0.00626338 0.00611034 0.00595824 0.00580718 0.00565731 0.00550874 0.00536158 0.00521595 0.00507193 0.00492963 0.00478914 0.00465054 0.0045139 0.00437931 0.00424681 0.00411648 0.00398838 0.00386254 0.00373901 0.00361783 0.00349905 0.00338268 0.00326874 0.00315727 0.00304828 0.00294177 0.00283776 0.00273625 0.00263724 0.00254072 0.00244669 0.00235513 0.00226604 0.0021794 0.00209518 0.00201337 0.00193394 0.00185686 0.00178211 0.00170966 0.00163947 0.00157151 0.00150574 0.00144213 0.00138063 0.00132122 0.00126384 0.00120845 0.00115503 0.00110351 0.00105386 0.00100604 0.000959995 0.000915688 0.000873073 0.000832106 0.000792741 0.000754935 0.000718644 0.000683823 0.000650429 0.000618419 0.00058775 0.000558379 0.000530266 0.000503368 0.000477645 0.000453058 0.000429567 0.000407133 0.000385719 0.000365288 0.000345803 0.000327229 0.000309531 0.000292677 0.000276632 0.000261365 0.000246844 0.000233039 0.000219921 0.000207461 0.000195632 0.000184405 0.000173755 0.000163658 0.000154087 0.000145021 0.000136436 0.000128309 0.00012062 0.000113349 0.000106475 9.99798e-05 9.3845e-05 8.8053e-05 8.25869e-05 7.74307e-05 7.25688e-05 6.79864e-05 6.36691e-05 5.96034e-05 5.57762e-05 5.21749e-05 4.87878e-05 4.56033e-05 4.26105e-05 3.97992e-05 3.71593e-05 3.46815e-05 3.23567e-05 3.01765e-05 2.81325e-05 2.62172e-05 2.44231e-05 2.27433e-05 2.11711e-05 1.97002e-05 1.83246e-05 1.70388e-05 1.58372e-05 1.47149e-05 1.36671e-05 1.26891e-05 1.17767e-05 1.09259e-05 1.01328e-05 9.39376e-06 8.7054e-06 8.06449e-06 7.468e-06 6.91307e-06 6.39701e-06 5.91729e-06 5.47152e-06 5.05746e-06 4.67302e-06 4.31621e-06 3.98517e-06 3.67817e-06 3.39357e-06 3.12984e-06 2.88554e-06 2.65934e-06 2.44997e-06 2.25626e-06 2.0771e-06 1.91146e-06 1.75839e-06 1.61699e-06 1.48641e-06 1.36588e-06 1.25467e-06 1.15209e-06 1.05751e-06 9.70336e-07 8.90027e-07 8.16067e-07 7.47981e-07 6.85326e-07 6.27691e-07 5.74694e-07 5.2598e-07 4.81221e-07 4.40111e-07 4.02366e-07 3.67725e-07 3.35945e-07 3.068e-07 2.80082e-07 2.55598e-07 2.3317e-07 2.12634e-07 1.93835e-07 1.76635e-07 1.60903e-07 1.46519e-07 1.33373e-07 1.21363e-07 1.10394e-07 1.00381e-07 9.12425e-08 8.29064e-08 7.53048e-08 6.83755e-08 6.20615e-08 5.63103e-08 5.10737e-08 4.63074e-08 4.19709e-08 3.80268e-08 3.44409e-08 3.1182e-08 2.82214e-08 2.55326e-08 2.30918e-08 2.08768e-08 1.88676e-08 1.70456e-08 1.5394e-08 1.38975e-08 1.2542e-08 1.13146e-08 1.02037e-08 9.19859e-09 8.28952e-09;
}

